<?xml version="1.0"?>
<opencv_storage>
<cascade>
  <stageType>BOOST</stageType>
  <featureType>LBP</featureType>
  <height>50</height>
  <width>50</width>
  <stageParams>
    <boostType>GAB</boostType>
    <minHitRate>9.9500000476837158e-01</minHitRate>
    <maxFalseAlarm>5.0000000000000000e-01</maxFalseAlarm>
    <weightTrimRate>9.4999999999999996e-01</weightTrimRate>
    <maxDepth>1</maxDepth>
    <maxWeakCount>100</maxWeakCount></stageParams>
  <featureParams>
    <maxCatCount>256</maxCatCount>
    <featSize>1</featSize></featureParams>
  <stageNum>24</stageNum>
  <stages>
    <!-- stage 0 -->
    <_>
      <maxWeakCount>3</maxWeakCount>
      <stageThreshold>-8.5867321491241455e-01</stageThreshold>
      <weakClassifiers>
        <_>
          <internalNodes>
            0 -1 33 -548408326 -883173365 0 1527988679 -1073090677
            1136853121 1636413690 863736059</internalNodes>
          <leafValues>
            -7.9710143804550171e-01 7.4304890632629395e-01</leafValues></_>
        <_>
          <internalNodes>
            0 -1 88 92241919 630658763 -1861184513 840077778 -410277393
            -687353201 -342098945 -1076168264</internalNodes>
          <leafValues>
            -7.5260591506958008e-01 6.3318675756454468e-01</leafValues></_>
        <_>
          <internalNodes>
            0 -1 25 -388587346 -71627217 1660861821 -202133537
            -2064140625 -3192882 1357832095 -740581669</internalNodes>
          <leafValues>
            -6.5325850248336792e-01 6.9103413820266724e-01</leafValues></_></weakClassifiers></_>
    <!-- stage 1 -->
    <_>
      <maxWeakCount>4</maxWeakCount>
      <stageThreshold>-3.9846360683441162e-01</stageThreshold>
      <weakClassifiers>
        <_>
          <internalNodes>
            0 -1 38 -2629633 500519284 1090683034 840165658 -16598017
            1066131467 1762083018 812642555</internalNodes>
          <leafValues>
            -8.3835613727569580e-01 5.5537188053131104e-01</leafValues></_>
        <_>
          <internalNodes>
            0 -1 79 -1364513793 -468987635 546509791 1652195771
            -695144513 -72122174 -1146540033 -85131291</internalNodes>
          <leafValues>
            -6.9204348325729370e-01 6.4359104633331299e-01</leafValues></_>
        <_>
          <internalNodes>
            0 -1 134 -753410721 -44235457 -1340571202 -91482722
            -796225451 -217405417 -303576972 -458298985</internalNodes>
          <leafValues>
            -7.7442920207977295e-01 5.3933501243591309e-01</leafValues></_>
        <_>
          <internalNodes>
            0 -1 53 -140913761 1967329395 168857947 521705780 403513567
            184549508 -1459369829 2134021372</internalNodes>
          <leafValues>
            -7.1437561511993408e-01 5.9260106086730957e-01</leafValues></_></weakClassifiers></_>
    <!-- stage 2 -->
    <_>
      <maxWeakCount>4</maxWeakCount>
      <stageThreshold>-1.4986838102340698e+00</stageThreshold>
      <weakClassifiers>
        <_>
          <internalNodes>
            0 -1 92 32978815 1064636511 -1059892137 319979831
            -1694258773 -86257335 -1434059621 -89596420</internalNodes>
          <leafValues>
            -7.0037454366683960e-01 5.4521512985229492e-01</leafValues></_>
        <_>
          <internalNodes>
            0 -1 66 -1835034216 -1210613675 -1790737989 -1253638141
            -1575050305 -1856258042 -1207442753 -1952474961</internalNodes>
          <leafValues>
            -7.2161847352981567e-01 5.1974272727966309e-01</leafValues></_>
        <_>
          <internalNodes>
            0 -1 147 -413664257 668452103 1426702619 -1904815881
            -527730607 -628391585 -305609520 -394987440</internalNodes>
          <leafValues>
            -7.3122745752334595e-01 4.7111093997955322e-01</leafValues></_>
        <_>
          <internalNodes>
            0 -1 89 805256191 -847495171 -536870913 -974159873
            -1073774593 -16810241 -1887441921 -1125847308</internalNodes>
          <leafValues>
            -5.9105300903320312e-01 6.2910562753677368e-01</leafValues></_></weakClassifiers></_>
    <!-- stage 3 -->
    <_>
      <maxWeakCount>4</maxWeakCount>
      <stageThreshold>-4.4797241687774658e-01</stageThreshold>
      <weakClassifiers>
        <_>
          <internalNodes>
            0 -1 21 -16261121 2106978655 -1560229384 -99429990 460151547
            995754011 1674154689 2012999523</internalNodes>
          <leafValues>
            -7.8415298461914062e-01 5.2483445405960083e-01</leafValues></_>
        <_>
          <internalNodes>
            0 -1 108 529786783 -1223473910 855704731 -1081650151
            -2145677088 -1952792063 8462336 263184319</internalNodes>
          <leafValues>
            -7.5582647323608398e-01 4.6166869997978210e-01</leafValues></_>
        <_>
          <internalNodes>
            0 -1 35 -69484705 -171462197 -251342345 1989972366 952828751
            449441829 -73413641 -190718089</internalNodes>
          <leafValues>
            -6.9413495063781738e-01 5.2322626113891602e-01</leafValues></_>
        <_>
          <internalNodes>
            0 -1 158 -269516929 -1072492105 539575605 -465255470
            855734039 -893156934 -427701951 -98766480</internalNodes>
          <leafValues>
            -6.4652681350708008e-01 5.6878077983856201e-01</leafValues></_></weakClassifiers></_>
    <!-- stage 4 -->
    <_>
      <maxWeakCount>4</maxWeakCount>
      <stageThreshold>-4.6999490261077881e-01</stageThreshold>
      <weakClassifiers>
        <_>
          <internalNodes>
            0 -1 3 -364717345 -537882621 -1073658877 1426397203
            -1358265410 -931004218 -1054701425 1936835959</internalNodes>
          <leafValues>
            -6.9640481472015381e-01 4.9032801389694214e-01</leafValues></_>
        <_>
          <internalNodes>
            0 -1 93 1071586143 -203882225 -1073687337 -135081579
            2081518091 -645790829 -917529409 -89112240</internalNodes>
          <leafValues>
            -7.1527659893035889e-01 4.5485782623291016e-01</leafValues></_>
        <_>
          <internalNodes>
            0 -1 71 -721340449 221448465 1360220510 437276954 -796881665
            1040318523 -1744664236 -12927302</internalNodes>
          <leafValues>
            -7.4596220254898071e-01 4.3397429585456848e-01</leafValues></_>
        <_>
          <internalNodes>
            0 -1 135 -1616969707 -1651961855 1384350635 -1870311145
            42082724 -2012772176 -2013028209 -1999639313</internalNodes>
          <leafValues>
            -6.6242223978042603e-01 5.6197088956832886e-01</leafValues></_></weakClassifiers></_>
    <!-- stage 5 -->
    <_>
      <maxWeakCount>5</maxWeakCount>
      <stageThreshold>-8.7590843439102173e-01</stageThreshold>
      <weakClassifiers>
        <_>
          <internalNodes>
            0 -1 39 -645949441 1855947139 361320817 -220568066 529212287
            2064289930 1481204183 -1795972649</internalNodes>
          <leafValues>
            -6.3592231273651123e-01 5.2329748868942261e-01</leafValues></_>
        <_>
          <internalNodes>
            0 -1 72 467604991 -6991585 -741749411 -1366523629 1342661583
            -640951896 -842423541 -292894444</internalNodes>
          <leafValues>
            -5.9123998880386353e-01 5.4473930597305298e-01</leafValues></_>
        <_>
          <internalNodes>
            0 -1 133 -645401729 -277393073 604001822 -88407588 136030244
            -1098807149 -74527808 -189277249</internalNodes>
          <leafValues>
            -6.2381911277770996e-01 5.3236889839172363e-01</leafValues></_>
        <_>
          <internalNodes>
            0 -1 122 -815846571 -160316609 -1324904001 -1027705334
            -199514511 -1719039997 2070129137 -287768600</internalNodes>
          <leafValues>
            -6.9990748167037964e-01 5.1754373311996460e-01</leafValues></_>
        <_>
          <internalNodes>
            0 -1 32 -322574345 -435007469 -1115131109 -1299070512
            -1576692545 -49309629 -745700979 -794584797</internalNodes>
          <leafValues>
            -6.5775442123413086e-01 5.3900116682052612e-01</leafValues></_></weakClassifiers></_>
    <!-- stage 6 -->
    <_>
      <maxWeakCount>5</maxWeakCount>
      <stageThreshold>-1.1053543090820312e+00</stageThreshold>
      <weakClassifiers>
        <_>
          <internalNodes>
            0 -1 23 -884484645 -39878501 -553416226 -767365394 -74925909
            1235060878 -813046809 1444934539</internalNodes>
          <leafValues>
            -7.1678829193115234e-01 4.3904381990432739e-01</leafValues></_>
        <_>
          <internalNodes>
            0 -1 138 -167774721 1696019099 381147 -900479613 -266239424
            184909859 -254938432 -459804177</internalNodes>
          <leafValues>
            -6.0933101177215576e-01 4.6583980321884155e-01</leafValues></_>
        <_>
          <internalNodes>
            0 -1 27 1868519647 2088846047 -2113813497 -1459607040
            944405995 2039021963 -871857938 2041905314</internalNodes>
          <leafValues>
            -7.0704948902130127e-01 3.8125896453857422e-01</leafValues></_>
        <_>
          <internalNodes>
            0 -1 128 -418934421 -1392119671 1090541851 1293263235
            -1992178815 1085350017 -234102588 -989869846</internalNodes>
          <leafValues>
            -5.9536558389663696e-01 4.6063154935836792e-01</leafValues></_>
        <_>
          <internalNodes>
            0 -1 19 -773124177 -2101175477 1342242828 -1839710141
            -1987479237 163741865 1104895375 1912858455</internalNodes>
          <leafValues>
            -6.0798782110214233e-01 4.3086516857147217e-01</leafValues></_></weakClassifiers></_>
    <!-- stage 7 -->
    <_>
      <maxWeakCount>6</maxWeakCount>
      <stageThreshold>-6.7128998041152954e-01</stageThreshold>
      <weakClassifiers>
        <_>
          <internalNodes>
            0 -1 48 -1605327653 -674004221 352397619 -586083965
            -1601642033 -1458987007 -2127783157 -2140141505</internalNodes>
          <leafValues>
            -6.2254261970520020e-01 4.5454546809196472e-01</leafValues></_>
        <_>
          <internalNodes>
            0 -1 68 206907775 437945183 1125856861 1043726766 196168511
            -1113925493 -998106721 -1091268973</internalNodes>
          <leafValues>
            -6.3196706771850586e-01 4.1890275478363037e-01</leafValues></_>
        <_>
          <internalNodes>
            0 -1 118 294064145 318980227 1409614849 -1313750899
            -1570557264 213121 538421407 532644319</internalNodes>
          <leafValues>
            -7.0074945688247681e-01 3.8560381531715393e-01</leafValues></_>
        <_>
          <internalNodes>
            0 -1 109 46638895 -1905160035 557962578 -324112053
            -670519681 -1616045691 1866689829 2126437375</internalNodes>
          <leafValues>
            -6.8997752666473389e-01 3.9355620741844177e-01</leafValues></_>
        <_>
          <internalNodes>
            0 -1 50 -1543375599 -1004895104 -2096598983 -86670543
            -1281107023 -1315864413 -2004784937 -439494271</internalNodes>
          <leafValues>
            -6.0919415950775146e-01 4.2314511537551880e-01</leafValues></_>
        <_>
          <internalNodes>
            0 -1 56 10878991 500273317 1493193181 1251475720 1518345790
            -1423621986 -1719527093 -377322734</internalNodes>
          <leafValues>
            -5.8360201120376587e-01 4.9412757158279419e-01</leafValues></_></weakClassifiers></_>
    <!-- stage 8 -->
    <_>
      <maxWeakCount>6</maxWeakCount>
      <stageThreshold>-6.3121169805526733e-01</stageThreshold>
      <weakClassifiers>
        <_>
          <internalNodes>
            0 -1 85 -1363264003 -1 2096996351 -537042947 -1396801538
            -34734081 -1359020033 -1363666948</internalNodes>
          <leafValues>
            -4.5109781622886658e-01 5.4584223031997681e-01</leafValues></_>
        <_>
          <internalNodes>
            0 -1 150 235453235 237674627 -1862024425 -581070693
            838984511 -1995798254 -652517367 -2048950163</internalNodes>
          <leafValues>
            -5.6334179639816284e-01 4.3596503138542175e-01</leafValues></_>
        <_>
          <internalNodes>
            0 -1 46 2131195167 -1912381325 -255721179 -329346790
            566823207 1040417163 -818681484 -1330775373</internalNodes>
          <leafValues>
            -6.7940557003021240e-01 3.7854492664337158e-01</leafValues></_>
        <_>
          <internalNodes>
            0 -1 117 -915967996 -1860992757 -1853787374 -951360999
            1804956 1270948353 76259759 142035087</internalNodes>
          <leafValues>
            -7.1500837802886963e-01 3.7919422984123230e-01</leafValues></_>
        <_>
          <internalNodes>
            0 -1 115 -2130445505 463065137 285429850 168973699
            -1609975376 -1149172862 -343155984 -323253572</internalNodes>
          <leafValues>
            -6.4305377006530762e-01 3.7431058287620544e-01</leafValues></_>
        <_>
          <internalNodes>
            0 -1 59 806503599 1069713627 -1996488185 -1920974518
            1772621503 -1685088120 -1571814725 -1146132086</internalNodes>
          <leafValues>
            -6.5155923366546631e-01 4.1611856222152710e-01</leafValues></_></weakClassifiers></_>
    <!-- stage 9 -->
    <_>
      <maxWeakCount>6</maxWeakCount>
      <stageThreshold>-1.2260153293609619e+00</stageThreshold>
      <weakClassifiers>
        <_>
          <internalNodes>
            0 -1 87 568524863 226431335 -1560182457 1042471262
            -1979633365 2036007115 -2096790849 2063397816</internalNodes>
          <leafValues>
            -7.8378379344940186e-01 3.5740071535110474e-01</leafValues></_>
        <_>
          <internalNodes>
            0 -1 119 227612447 -712153614 -183135841 -141619169
            -1283425701 -33316022 -1430774801 -7596675</internalNodes>
          <leafValues>
            -4.7251132130622864e-01 5.2069383859634399e-01</leafValues></_>
        <_>
          <internalNodes>
            0 -1 156 -910427857 -1355022355 -268435529 -268436497
            1962874211 -1367474177 -957036959 -857735713</internalNodes>
          <leafValues>
            -4.6697172522544861e-01 5.3789514303207397e-01</leafValues></_>
        <_>
          <internalNodes>
            0 -1 36 -48627546 -1181220606 -2130706157 -788134605
            956531116 -1826078716 270051487 -1874288629</internalNodes>
          <leafValues>
            -6.9821828603744507e-01 4.0947082638740540e-01</leafValues></_>
        <_>
          <internalNodes>
            0 -1 22 -414299153 286347483 -1869361149 134923282 169492747
            2078351365 -389365181 -209454321</internalNodes>
          <leafValues>
            -5.4139786958694458e-01 4.6518480777740479e-01</leafValues></_>
        <_>
          <internalNodes>
            0 -1 97 -2042551273 -125747065 -2011688683 -560639019
            -2121395205 -931102584 -612300549 -21462550</internalNodes>
          <leafValues>
            -5.1200598478317261e-01 5.1606667041778564e-01</leafValues></_></weakClassifiers></_>
    <!-- stage 10 -->
    <_>
      <maxWeakCount>7</maxWeakCount>
      <stageThreshold>-1.4635710716247559e+00</stageThreshold>
      <weakClassifiers>
        <_>
          <internalNodes>
            0 -1 2 -528359205 -750714871 -1056419582 -180281083
            -2138509169 -939458558 626827 16973825</internalNodes>
          <leafValues>
            -5.3770089149475098e-01 4.3766579031944275e-01</leafValues></_>
        <_>
          <internalNodes>
            0 -1 95 -1298005520 -767557632 16448 -250380271 -2146948984
            -2071920640 -1606385510 -1279654260</internalNodes>
          <leafValues>
            -4.3192782998085022e-01 5.1532280445098877e-01</leafValues></_>
        <_>
          <internalNodes>
            0 -1 40 2097205467 -242695744 1343328604 -262945955
            -1476362112 1535115264 453067670 279552583</internalNodes>
          <leafValues>
            -6.3498139381408691e-01 3.3951371908187866e-01</leafValues></_>
        <_>
          <internalNodes>
            0 -1 47 -1879609424 -1371541765 2147482326 -1204945034
            -35002 1073643511 1039988166 -674243358</internalNodes>
          <leafValues>
            -4.1039121150970459e-01 5.7035487890243530e-01</leafValues></_>
        <_>
          <internalNodes>
            0 -1 106 -243802482 -777167833 1937602487 1400598391
            -92274947 -462176657 834330106 318856463</internalNodes>
          <leafValues>
            -3.7456378340721130e-01 6.0803306102752686e-01</leafValues></_>
        <_>
          <internalNodes>
            0 -1 8 -483919517 1209205184 302055760 -687144812
            -1996324625 33554560 150997202 1364693041</internalNodes>
          <leafValues>
            -6.1267095804214478e-01 3.9037913084030151e-01</leafValues></_>
        <_>
          <internalNodes>
            0 -1 112 -4530866 -780307196 -172032259 -180920706 -17039936
            -9142411 -1208158503 -248294223</internalNodes>
          <leafValues>
            -4.3888017535209656e-01 5.4217487573623657e-01</leafValues></_></weakClassifiers></_>
    <!-- stage 11 -->
    <_>
      <maxWeakCount>7</maxWeakCount>
      <stageThreshold>-1.0481466054916382e+00</stageThreshold>
      <weakClassifiers>
        <_>
          <internalNodes>
            0 -1 28 -654193233 1712381953 -1862221377 134799714
            948506175 1519059036 -475415605 -148707309</internalNodes>
          <leafValues>
            -5.6430447101593018e-01 4.1595923900604248e-01</leafValues></_>
        <_>
          <internalNodes>
            0 -1 140 -346296061 755405121 1359565185 -16285299
            -1987931457 1317122201 1091015052 -2070945573</internalNodes>
          <leafValues>
            -4.5281705260276794e-01 4.5154127478599548e-01</leafValues></_>
        <_>
          <internalNodes>
            0 -1 111 -768668858 -209240059 -1072691190 -771411890
            -1967066695 -1467441116 823357576 -267162878</internalNodes>
          <leafValues>
            -5.8853358030319214e-01 3.6401715874671936e-01</leafValues></_>
        <_>
          <internalNodes>
            0 -1 82 156967295 1373574211 -1073741821 -1262038781
            -1073732721 -616382463 -2080145021 494586252</internalNodes>
          <leafValues>
            -7.0080077648162842e-01 3.0772289633750916e-01</leafValues></_>
        <_>
          <internalNodes>
            0 -1 157 -842845397 -69091334 -1358987265 -1350565889
            -1375771244 -843186254 2085192861 -854590037</internalNodes>
          <leafValues>
            -3.9290899038314819e-01 5.5970197916030884e-01</leafValues></_>
        <_>
          <internalNodes>
            0 -1 18 -1068297977 -523574893 -1073641342 -47134718
            -2138371793 -1690229751 8464903 1970397559</internalNodes>
          <leafValues>
            -6.7409366369247437e-01 3.3786183595657349e-01</leafValues></_>
        <_>
          <internalNodes>
            0 -1 101 -397192940 1901855044 1293963483 554304905
            965142913 160043016 -1476275829 318928707</internalNodes>
          <leafValues>
            -5.9952557086944580e-01 3.7961047887802124e-01</leafValues></_></weakClassifiers></_>
    <!-- stage 12 -->
    <_>
      <maxWeakCount>7</maxWeakCount>
      <stageThreshold>-5.9291809797286987e-01</stageThreshold>
      <weakClassifiers>
        <_>
          <internalNodes>
            0 -1 121 -1290677281 591480147 268505307 236196251
            -620654151 -117355942 1223377760 -486616396</internalNodes>
          <leafValues>
            -6.5261381864547729e-01 3.3184856176376343e-01</leafValues></_>
        <_>
          <internalNodes>
            0 -1 124 -214731471 -650034925 67134543 -955035631
            -1609987964 -1876245760 738437320 68151547</internalNodes>
          <leafValues>
            -6.3052648305892944e-01 2.7835336327552795e-01</leafValues></_>
        <_>
          <internalNodes>
            0 -1 100 298259031 461574213 268501081 546488726 -2147286901
            167837826 -268205336 1324020120</internalNodes>
          <leafValues>
            -7.7974009513854980e-01 2.6447540521621704e-01</leafValues></_>
        <_>
          <internalNodes>
            0 -1 57 -1861746191 -683081424 1073860743 822809345
            -1398214486 -1476231159 134777519 -1912323627</internalNodes>
          <leafValues>
            -4.9274373054504395e-01 3.8006797432899475e-01</leafValues></_>
        <_>
          <internalNodes>
            0 -1 83 1036538271 1027822483 25186385 1562251287
            -1002364189 -234172407 -2113844848 -113223680</internalNodes>
          <leafValues>
            -5.7860207557678223e-01 3.4236055612564087e-01</leafValues></_>
        <_>
          <internalNodes>
            0 -1 99 -1605917349 -967584971 1090614744 1444544539
            -1172264575 -1860370423 -486420323 1590211291</internalNodes>
          <leafValues>
            -6.1060440540313721e-01 2.8851312398910522e-01</leafValues></_>
        <_>
          <internalNodes>
            0 -1 0 -1590983166 1434632604 339939353 -749256703 151098113
            -2105442304 1384743131 1296158771</internalNodes>
          <leafValues>
            -5.3333771228790283e-01 3.5945281386375427e-01</leafValues></_></weakClassifiers></_>
    <!-- stage 13 -->
    <_>
      <maxWeakCount>8</maxWeakCount>
      <stageThreshold>-1.0056740045547485e+00</stageThreshold>
      <weakClassifiers>
        <_>
          <internalNodes>
            0 -1 7 -113207590 -708736639 -1728033664 1527610135
            -2147482997 1082130464 1610719423 1896853731</internalNodes>
          <leafValues>
            -6.2938231229782104e-01 3.2587620615959167e-01</leafValues></_>
        <_>
          <internalNodes>
            0 -1 80 1679754591 -664649697 1090535425 1456870017
            -1785756981 -1014808431 -1073643325 -1145378289</internalNodes>
          <leafValues>
            -4.7301578521728516e-01 3.9133512973785400e-01</leafValues></_>
        <_>
          <internalNodes>
            0 -1 145 -1324371295 -1357061924 1073823925 -1849306939
            1157763471 746717185 757792 228575242</internalNodes>
          <leafValues>
            -5.9120321273803711e-01 3.0917671322822571e-01</leafValues></_>
        <_>
          <internalNodes>
            0 -1 4 -804314994 1560494304 324358513 -1827208879
            -1693722486 -368574454 51012152 1392710148</internalNodes>
          <leafValues>
            -6.0971635580062866e-01 3.1524220108985901e-01</leafValues></_>
        <_>
          <internalNodes>
            0 -1 102 549913017 -1974394601 1342553415 404095280
            -1736257313 -1332080248 1216651435 989349040</internalNodes>
          <leafValues>
            -6.4507895708084106e-01 3.0416715145111084e-01</leafValues></_>
        <_>
          <internalNodes>
            0 -1 142 -125346729 1896022033 37748878 1677787207 688775897
            -1107295998 134287544 -800896609</internalNodes>
          <leafValues>
            -5.0063723325729370e-01 3.8650363683700562e-01</leafValues></_>
        <_>
          <internalNodes>
            0 -1 11 2114243538 1803751634 153952399 395116996
            -1953787189 2046898824 587424191 797958363</internalNodes>
          <leafValues>
            -5.8243250846862793e-01 3.3512401580810547e-01</leafValues></_>
        <_>
          <internalNodes>
            0 -1 116 186370459 186306656 -268336967 -569634796
            1761685763 1552943232 1207964629 1704522624</internalNodes>
          <leafValues>
            -6.6623300313949585e-01 3.0317848920822144e-01</leafValues></_></weakClassifiers></_>
    <!-- stage 14 -->
    <_>
      <maxWeakCount>8</maxWeakCount>
      <stageThreshold>-1.3043825626373291e+00</stageThreshold>
      <weakClassifiers>
        <_>
          <internalNodes>
            0 -1 52 -1008994381 -493223552 1157759041 1388707976
            -1728036337 -490078079 17435299 1421204359</internalNodes>
          <leafValues>
            -5.3755521774291992e-01 3.3703410625457764e-01</leafValues></_>
        <_>
          <internalNodes>
            0 -1 125 -1816004984 -2080325584 -1858011135 923373590
            885231873 -1979169663 830847080 1032319915</internalNodes>
          <leafValues>
            -6.4961737394332886e-01 2.5252825021743774e-01</leafValues></_>
        <_>
          <internalNodes>
            0 -1 63 -302574658 21594245 8389399 -1803550715 -926478326
            -771259774 -1031749557 -1413941062</internalNodes>
          <leafValues>
            -4.5151424407958984e-01 3.7337240576744080e-01</leafValues></_>
        <_>
          <internalNodes>
            0 -1 137 -1039713931 -787775485 -1073545088 293765131
            -1607882624 -1073741824 67822336 2122773096</internalNodes>
          <leafValues>
            -6.3358777761459351e-01 2.5307264924049377e-01</leafValues></_>
        <_>
          <internalNodes>
            0 -1 160 -536141761 2030194825 1073809426 -1543438175
            755191809 50577482 -519986488 -796272229</internalNodes>
          <leafValues>
            -4.3374660611152649e-01 4.2180410027503967e-01</leafValues></_>
        <_>
          <internalNodes>
            0 -1 146 -1669460237 1040067967 -67223686 -12616713
            -1225383980 -1073774593 -1082327126 -1141760263</internalNodes>
          <leafValues>
            -4.0377759933471680e-01 5.0372910499572754e-01</leafValues></_>
        <_>
          <internalNodes>
            0 -1 64 -604186115 -114677588 796806077 2067077525
            -1351239294 -914456708 240641791 1544232395</internalNodes>
          <leafValues>
            -3.0308908224105835e-01 6.5724104642868042e-01</leafValues></_>
        <_>
          <internalNodes>
            0 -1 42 -358096790 -1115478927 -805203520 -1828055996
            -385576464 -384757623 -1073081455 9310299</internalNodes>
          <leafValues>
            -5.8780741691589355e-01 3.2283881306648254e-01</leafValues></_></weakClassifiers></_>
    <!-- stage 15 -->
    <_>
      <maxWeakCount>8</maxWeakCount>
      <stageThreshold>-9.5518255233764648e-01</stageThreshold>
      <weakClassifiers>
        <_>
          <internalNodes>
            0 -1 29 -129824529 337248400 1368506369 570556674 1344407898
            1283571881 -250983793 1930652231</internalNodes>
          <leafValues>
            -6.3320463895797729e-01 2.7285513281822205e-01</leafValues></_>
        <_>
          <internalNodes>
            0 -1 123 -1424293097 1645019529 -2079255394 -594541648
            -1073612745 -1316812793 143180789 2123735275</internalNodes>
          <leafValues>
            -5.4879719018936157e-01 2.9375544190406799e-01</leafValues></_>
        <_>
          <internalNodes>
            0 -1 149 -482244306 -451194880 33563033 -987955071
            -2121748361 151552128 -532111216 1149713547</internalNodes>
          <leafValues>
            -5.2933096885681152e-01 3.2615470886230469e-01</leafValues></_>
        <_>
          <internalNodes>
            0 -1 76 558305663 1530988051 1342537985 -12140221 -795950965
            -1190854654 -2138470257 -210480788</internalNodes>
          <leafValues>
            -6.3015377521514893e-01 2.5394368171691895e-01</leafValues></_>
        <_>
          <internalNodes>
            0 -1 148 1289377420 337516568 69851 269091471 -451379058
            -1610596095 -1475689766 201857707</internalNodes>
          <leafValues>
            -4.7706398367881775e-01 3.6919787526130676e-01</leafValues></_>
        <_>
          <internalNodes>
            0 -1 104 -1995570621 -2130444158 -2080276015 -1318878078
            -2143150053 696287360 -1853711909 -1480686665</internalNodes>
          <leafValues>
            -4.2056676745414734e-01 3.8581508398056030e-01</leafValues></_>
        <_>
          <internalNodes>
            0 -1 136 -792251017 1392574661 1073844888 -729775863
            683188496 1344440602 -2147245395 -253517601</internalNodes>
          <leafValues>
            -5.3336393833160400e-01 3.2603678107261658e-01</leafValues></_>
        <_>
          <internalNodes>
            0 -1 17 -1911098863 1498677913 1099759621 -247168893
            -2013036413 35815424 9764998 1967210626</internalNodes>
          <leafValues>
            -6.4990931749343872e-01 2.8443056344985962e-01</leafValues></_></weakClassifiers></_>
    <!-- stage 16 -->
    <_>
      <maxWeakCount>7</maxWeakCount>
      <stageThreshold>-1.1168490648269653e+00</stageThreshold>
      <weakClassifiers>
        <_>
          <internalNodes>
            0 -1 81 274403679 -158138105 -2147385327 311321635 587834051
            -1174290432 -2147229557 462344123</internalNodes>
          <leafValues>
            -4.8048451542854309e-01 3.4837093949317932e-01</leafValues></_>
        <_>
          <internalNodes>
            0 -1 94 -1869608616 -612237296 -2126440999 -581062584
            -1014332632 -369063872 167947146 -89519812</internalNodes>
          <leafValues>
            -3.9328333735466003e-01 3.9135521650314331e-01</leafValues></_>
        <_>
          <internalNodes>
            0 -1 34 -788407811 1033307261 65563 1490026590 1091117803
            454693128 536905728 1469219456</internalNodes>
          <leafValues>
            -7.3137056827545166e-01 2.1946389973163605e-01</leafValues></_>
        <_>
          <internalNodes>
            0 -1 132 1384889089 1124171795 1090658330 -801044461
            -2147383263 -2096619000 -1207909736 -460076807</internalNodes>
          <leafValues>
            -5.2886253595352173e-01 3.0294275283813477e-01</leafValues></_>
        <_>
          <internalNodes>
            0 -1 61 -750763728 1435304160 -2139058035 1369161865
            -352286077 -515372927 134220251 195692764</internalNodes>
          <leafValues>
            -4.2441618442535400e-01 4.2112869024276733e-01</leafValues></_>
        <_>
          <internalNodes>
            0 -1 30 1267337434 -1626275680 33554448 1015678978
            1225726157 -1719402368 -1719063415 1755517449</internalNodes>
          <leafValues>
            -7.0035868883132935e-01 2.3752968013286591e-01</leafValues></_>
        <_>
          <internalNodes>
            0 -1 67 156379739 -536342383 16810965 -862514927 -939341117
            -2104917886 -1021129837 -791482206</internalNodes>
          <leafValues>
            -6.6954690217971802e-01 2.5320398807525635e-01</leafValues></_></weakClassifiers></_>
    <!-- stage 17 -->
    <_>
      <maxWeakCount>8</maxWeakCount>
      <stageThreshold>-1.2194532155990601e+00</stageThreshold>
      <weakClassifiers>
        <_>
          <internalNodes>
            0 -1 70 -1533593737 -1601830766 -654294719 1349961108
            -1064984192 -938833888 -1945662736 -1299280732</internalNodes>
          <leafValues>
            -4.5148772001266479e-01 3.5047128796577454e-01</leafValues></_>
        <_>
          <internalNodes>
            0 -1 152 -116661981 536904111 -1056686067 -921217583
            1644277787 679477640 -2130145021 1429977239</internalNodes>
          <leafValues>
            -5.2281957864761353e-01 3.1229212880134583e-01</leafValues></_>
        <_>
          <internalNodes>
            0 -1 110 -909654692 1369067541 -2139078185 1528775173
            -2097096248 -1715305976 1082885315 440035915</internalNodes>
          <leafValues>
            -3.6931702494621277e-01 4.3828168511390686e-01</leafValues></_>
        <_>
          <internalNodes>
            0 -1 12 1615355022 1359124346 -1056898751 1561022624
            1745631645 1530396705 553664889 722079790</internalNodes>
          <leafValues>
            -5.7267874479293823e-01 3.1981423497200012e-01</leafValues></_>
        <_>
          <internalNodes>
            0 -1 16 675888563 -557317884 -184397821 -653561527
            -1907883967 -871866366 85955459 1428393993</internalNodes>
          <leafValues>
            -5.2491194009780884e-01 3.0397102236747742e-01</leafValues></_>
        <_>
          <internalNodes>
            0 -1 14 -226865038 -247517314 1937723359 -210949715
            -1895959297 -836796618 1392342003 -687075379</internalNodes>
          <leafValues>
            -3.5105061531066895e-01 5.2906030416488647e-01</leafValues></_>
        <_>
          <internalNodes>
            0 -1 54 1225462111 -526778159 16814543 973258817 1115818267
            1216954370 10160935 1894826039</internalNodes>
          <leafValues>
            -7.9772889614105225e-01 2.5469928979873657e-01</leafValues></_>
        <_>
          <internalNodes>
            0 -1 26 170622883 -236458142 -1073807501 -5128705 1056832959
            2130706293 -1375733957 -1926103627</internalNodes>
          <leafValues>
            -4.0949153900146484e-01 4.2960172891616821e-01</leafValues></_></weakClassifiers></_>
    <!-- stage 18 -->
    <_>
      <maxWeakCount>8</maxWeakCount>
      <stageThreshold>-7.0619946718215942e-01</stageThreshold>
      <weakClassifiers>
        <_>
          <internalNodes>
            0 -1 129 1494219009 118148224 50762003 793575642 218210767
            671645832 51921793 -2120226129</internalNodes>
          <leafValues>
            -4.3979722261428833e-01 3.5360556840896606e-01</leafValues></_>
        <_>
          <internalNodes>
            0 -1 91 17241031 387035537 -2147430382 376882651 35668634
            -1056272254 537071771 1063166328</internalNodes>
          <leafValues>
            -6.5155386924743652e-01 2.3336715996265411e-01</leafValues></_>
        <_>
          <internalNodes>
            0 -1 143 -479106475 1377386499 -1878966142 -506363903
            536934560 33660946 -2147370624 -997097301</internalNodes>
          <leafValues>
            -5.4866290092468262e-01 3.1666371226310730e-01</leafValues></_>
        <_>
          <internalNodes>
            0 -1 55 -1609357681 -2113503022 1241522882 -2143252176
            -804764414 805996609 33763943 -285293937</internalNodes>
          <leafValues>
            -5.0411975383758545e-01 2.7707451581954956e-01</leafValues></_>
        <_>
          <internalNodes>
            0 -1 13 -578636574 -703827703 18383289 -687125754 8979369
            -317587188 -2004647765 1174798477</internalNodes>
          <leafValues>
            -3.9563450217247009e-01 4.0961793065071106e-01</leafValues></_>
        <_>
          <internalNodes>
            0 -1 43 553661184 1326072069 -1862205433 -475971571
            -1975398230 -1014455670 -1878945109 502883521</internalNodes>
          <leafValues>
            -5.7898980379104614e-01 2.7986219525337219e-01</leafValues></_>
        <_>
          <internalNodes>
            0 -1 131 428003738 168525952 16793875 529220433 1761812867
            445350018 -369096017 -1391811926</internalNodes>
          <leafValues>
            -4.7105199098587036e-01 3.5543966293334961e-01</leafValues></_>
        <_>
          <internalNodes>
            0 -1 15 -166403854 -184483584 301990239 -50261905 151678986
            -628490238 1594419979 1196133898</internalNodes>
          <leafValues>
            -4.0239918231964111e-01 4.5208021998405457e-01</leafValues></_></weakClassifiers></_>
    <!-- stage 19 -->
    <_>
      <maxWeakCount>9</maxWeakCount>
      <stageThreshold>-8.1958836317062378e-01</stageThreshold>
      <weakClassifiers>
        <_>
          <internalNodes>
            0 -1 153 -1020064141 -715669483 -2130509499 -183401910
            -758447600 -1342012911 -1065317600 -94308352</internalNodes>
          <leafValues>
            -5.0521612167358398e-01 3.1442078948020935e-01</leafValues></_>
        <_>
          <internalNodes>
            0 -1 144 1363514251 -2062266335 1073828113 -2029973375
            758241 -1325150208 -1375032903 -928650794</internalNodes>
          <leafValues>
            -4.3426793813705444e-01 3.4496083855628967e-01</leafValues></_>
        <_>
          <internalNodes>
            0 -1 130 -616436976 247105745 1157698881 -1688398970
            134458024 1536164480 16994441 1206896827</internalNodes>
          <leafValues>
            -4.2472007870674133e-01 3.3779224753379822e-01</leafValues></_>
        <_>
          <internalNodes>
            0 -1 114 -2029977338 1846116485 83902564 2080538650
            -1819700617 -1465745408 654348496 2123356818</internalNodes>
          <leafValues>
            -5.6567955017089844e-01 2.9348307847976685e-01</leafValues></_>
        <_>
          <internalNodes>
            0 -1 77 -1801109312 390524576 1072676653 389622763
            1560263812 -1157332996 1593818367 -1149247491</internalNodes>
          <leafValues>
            -3.5644021630287170e-01 4.5095810294151306e-01</leafValues></_>
        <_>
          <internalNodes>
            0 -1 96 -1800924675 -536805102 1074823441 -653971448
            -494362472 1207959553 -2111774551 -1471534947</internalNodes>
          <leafValues>
            -4.4111600518226624e-01 3.6556765437126160e-01</leafValues></_>
        <_>
          <internalNodes>
            0 -1 51 -620639979 -1392508608 1098907732 -685762280
            -2104917106 1502216328 -2097114734 -804026181</internalNodes>
          <leafValues>
            -4.1924446821212769e-01 4.1720128059387207e-01</leafValues></_>
        <_>
          <internalNodes>
            0 -1 45 -738198569 -31758802 996652645 1903427404
            -1879247701 -298893563 369074143 524211471</internalNodes>
          <leafValues>
            -2.8595393896102905e-01 6.3053601980209351e-01</leafValues></_>
        <_>
          <internalNodes>
            0 -1 105 9839393 -1584365559 -1845456639 1463820439
            1342701848 -1005518848 -779017332 -1706393180</internalNodes>
          <leafValues>
            -5.5572640895843506e-01 3.6093595623970032e-01</leafValues></_></weakClassifiers></_>
    <!-- stage 20 -->
    <_>
      <maxWeakCount>9</maxWeakCount>
      <stageThreshold>-5.6021279096603394e-01</stageThreshold>
      <weakClassifiers>
        <_>
          <internalNodes>
            0 -1 86 -1563694177 1107452177 16847235 173445131
            -1324904309 -83886067 -507309175 170789517</internalNodes>
          <leafValues>
            -6.0147601366043091e-01 2.7610871195793152e-01</leafValues></_>
        <_>
          <internalNodes>
            0 -1 9 -1285565938 1154077056 -788430782 -654243439
            -2147186197 1526923392 -1744114973 -1047176541</internalNodes>
          <leafValues>
            -4.1578114032745361e-01 3.7723106145858765e-01</leafValues></_>
        <_>
          <internalNodes>
            0 -1 141 -661708222 958223637 1073844288 1959198726
            -928399211 -1451065302 -2004759990 1881217351</internalNodes>
          <leafValues>
            -5.4085457324981689e-01 2.6298588514328003e-01</leafValues></_>
        <_>
          <internalNodes>
            0 -1 20 1120473367 -2146840573 -2147418032 1082282131
            -2010705397 293666826 1074481751 1223772259</internalNodes>
          <leafValues>
            -6.1091148853302002e-01 2.6018097996711731e-01</leafValues></_>
        <_>
          <internalNodes>
            0 -1 75 -1954152276 1371537537 -2113928175 357071065
            -1742691671 -1962540848 -2147364199 704666872</internalNodes>
          <leafValues>
            -6.6882807016372681e-01 2.2232048213481903e-01</leafValues></_>
        <_>
          <internalNodes>
            0 -1 41 -250885296 -850263397 285806932 1527234835
            -2013126486 -1895628286 285769885 153333811</internalNodes>
          <leafValues>
            -3.8573798537254333e-01 4.1382578015327454e-01</leafValues></_>
        <_>
          <internalNodes>
            0 -1 120 -775410897 -762216301 -989806454 -799993512
            -2013149133 -922681280 -2097108485 2054134082</internalNodes>
          <leafValues>
            -4.4533729553222656e-01 3.6372211575508118e-01</leafValues></_>
        <_>
          <internalNodes>
            0 -1 126 -736657277 -1761570748 289509721 -988475347
            805351993 1367347200 -486342228 -267390782</internalNodes>
          <leafValues>
            -3.8415729999542236e-01 4.5009127259254456e-01</leafValues></_>
        <_>
          <internalNodes>
            0 -1 84 335593896 1068122256 53329 1025582536 272632007
            2098235657 -519257880 185561295</internalNodes>
          <leafValues>
            -6.6171818971633911e-01 2.3507525026798248e-01</leafValues></_></weakClassifiers></_>
    <!-- stage 21 -->
    <_>
      <maxWeakCount>10</maxWeakCount>
      <stageThreshold>-7.2299301624298096e-01</stageThreshold>
      <weakClassifiers>
        <_>
          <internalNodes>
            0 -1 139 1359389447 -2126168055 25248019 -283917363
            -1876836165 1753416840 -1789276028 1145825502</internalNodes>
          <leafValues>
            -5.0295859575271606e-01 3.1645569205284119e-01</leafValues></_>
        <_>
          <internalNodes>
            0 -1 73 1125060375 1520447491 -1055833637 412877314
            -385793909 -384073599 1074332059 1854705082</internalNodes>
          <leafValues>
            -5.5100446939468384e-01 2.5488743185997009e-01</leafValues></_>
        <_>
          <internalNodes>
            0 -1 154 42422542 84494003 -1585446662 805896587 -1459486378
            1930625536 -1870540134 -1270363237</internalNodes>
          <leafValues>
            -4.9947723746299744e-01 2.9633566737174988e-01</leafValues></_>
        <_>
          <internalNodes>
            0 -1 98 -2007815943 -1603227645 -2013214479 -1200348903
            -2113881973 -645382135 344064927 950814754</internalNodes>
          <leafValues>
            -6.1058008670806885e-01 2.5109899044036865e-01</leafValues></_>
        <_>
          <internalNodes>
            0 -1 60 -634717967 1601113208 175075895 1400208573
            -1284651553 -1453031561 91617243 -1693250453</internalNodes>
          <leafValues>
            -2.1244227886199951e-01 6.9235801696777344e-01</leafValues></_>
        <_>
          <internalNodes>
            0 -1 159 295375138 -1986899706 1342281823 -430313469
            1074340179 553877506 1091272840 -640556706</internalNodes>
          <leafValues>
            -4.5322561264038086e-01 3.4058102965354919e-01</leafValues></_>
        <_>
          <internalNodes>
            0 -1 5 659060105 1140949120 285234435 -1651662777 293667098
            -1022877695 1381056643 696414595</internalNodes>
          <leafValues>
            -4.7006452083587646e-01 3.4661892056465149e-01</leafValues></_>
        <_>
          <internalNodes>
            0 -1 69 -2129458849 293683213 82140 -1585081583 -1031662321
            -2147450880 1080247090 -1961975802</internalNodes>
          <leafValues>
            -4.9514713883399963e-01 3.2394462823867798e-01</leafValues></_>
        <_>
          <internalNodes>
            0 -1 44 -112080770 318963730 75564369 1929916499 -1861842783
            -1471610844 1346404635 453535769</internalNodes>
          <leafValues>
            -4.0911948680877686e-01 4.0755265951156616e-01</leafValues></_>
        <_>
          <internalNodes>
            0 -1 10 -716975870 -905117118 528768 -2071920623 -2136440055
            8519808 -1035988607 -238876517</internalNodes>
          <leafValues>
            -5.9525591135025024e-01 3.0324348807334900e-01</leafValues></_></weakClassifiers></_>
    <!-- stage 22 -->
    <_>
      <maxWeakCount>8</maxWeakCount>
      <stageThreshold>-6.6805797815322876e-01</stageThreshold>
      <weakClassifiers>
        <_>
          <internalNodes>
            0 -1 127 26217759 274268289 287376209 -766619622 268730511
            958414848 965323760 807723940</internalNodes>
          <leafValues>
            -6.6125291585922241e-01 2.2862823307514191e-01</leafValues></_>
        <_>
          <internalNodes>
            0 -1 151 -783564765 730323085 293603479 -779235243
            -536827441 -1979604862 1879214464 -862985479</internalNodes>
          <leafValues>
            -4.1387081146240234e-01 3.3913263678550720e-01</leafValues></_>
        <_>
          <internalNodes>
            0 -1 24 -996916561 1259602373 -2147461809 1342242819
            1526734328 679477248 -1709134965 1526890811</internalNodes>
          <leafValues>
            -3.9727988839149475e-01 3.7322741746902466e-01</leafValues></_>
        <_>
          <internalNodes>
            0 -1 58 -1724657349 176193747 286265668 -99024752
            -2147308253 -1146486528 -2136829264 1153550563</internalNodes>
          <leafValues>
            -6.1391526460647583e-01 2.2043301165103912e-01</leafValues></_>
        <_>
          <internalNodes>
            0 -1 65 -29454117 -144523975 2126471165 1364864874
            -1358971412 -1923121294 477415295 -838463811</internalNodes>
          <leafValues>
            -3.1942728161811829e-01 4.8743894696235657e-01</leafValues></_>
        <_>
          <internalNodes>
            0 -1 62 -2130572165 -1266647031 285315141 1615773844
            -401905574 -1591729664 -1339783135 -1571096541</internalNodes>
          <leafValues>
            -5.1992392539978027e-01 2.6734429597854614e-01</leafValues></_>
        <_>
          <internalNodes>
            0 -1 107 -1277307446 -1116774606 -50332493 2133948239
            -1175274797 -1174929429 -185085497 828505979</internalNodes>
          <leafValues>
            -3.3660954236984253e-01 4.7622874379158020e-01</leafValues></_>
        <_>
          <internalNodes>
            0 -1 74 537867195 -745959031 1073758725 -1940864632
            -1065197367 -1879046135 -1878956005 2005698612</internalNodes>
          <leafValues>
            -6.4876949787139893e-01 2.6415550708770752e-01</leafValues></_></weakClassifiers></_>
    <!-- stage 23 -->
    <_>
      <maxWeakCount>10</maxWeakCount>
      <stageThreshold>-8.4953099489212036e-01</stageThreshold>
      <weakClassifiers>
        <_>
          <internalNodes>
            0 -1 103 89206813 25368855 -2130697963 444743875 268626315
            -2097069823 151224904 1280365136</internalNodes>
          <leafValues>
            -7.9605263471603394e-01 1.8459658324718475e-01</leafValues></_>
        <_>
          <internalNodes>
            0 -1 155 -1018451601 1121337605 67 1756463883 -804747175
            -376913792 981522867 -804832609</internalNodes>
          <leafValues>
            -3.6425113677978516e-01 3.6013501882553101e-01</leafValues></_>
        <_>
          <internalNodes>
            0 -1 37 -1064296061 -259993087 328283778 2006266261
            -1870622656 302039168 -1610405493 88821849</internalNodes>
          <leafValues>
            -5.1442539691925049e-01 2.9639336466789246e-01</leafValues></_>
        <_>
          <internalNodes>
            0 -1 49 -1207275406 -197648376 152775 1560760392 -1708547709
            -2013233024 134783115 431623309</internalNodes>
          <leafValues>
            -4.0235403180122375e-01 3.8732996582984924e-01</leafValues></_>
        <_>
          <internalNodes>
            0 -1 6 -1247033438 -949387843 -1107319181 1341915133
            1161107384 1476394997 1962352150 1409277883</internalNodes>
          <leafValues>
            -3.6102470755577087e-01 4.3520680069923401e-01</leafValues></_>
        <_>
          <internalNodes>
            0 -1 90 -1811918381 -708706110 20987917 264835433
            -2147467261 65536 -1793736272 -614412452</internalNodes>
          <leafValues>
            -4.3639963865280151e-01 3.4976753592491150e-01</leafValues></_>
        <_>
          <internalNodes>
            0 -1 31 1387267150 -134213503 16847192 1356349824 67635256
            1208062470 -1853855094 1531317507</internalNodes>
          <leafValues>
            -4.6351173520088196e-01 3.4603121876716614e-01</leafValues></_>
        <_>
          <internalNodes>
            0 -1 1 1187573160 -1030914043 -738196479 -251289312
            1024605064 1073874953 -1412706033 522764305</internalNodes>
          <leafValues>
            -4.8290377855300903e-01 3.1207919120788574e-01</leafValues></_>
        <_>
          <internalNodes>
            0 -1 113 -389935546 1414840653 823198759 1364672522
            389460649 269779073 -528459320 1111515339</internalNodes>
          <leafValues>
            -5.9084904193878174e-01 2.6465308666229248e-01</leafValues></_>
        <_>
          <internalNodes>
            0 -1 78 -1476152935 -1065152494 536875283 1342836880
            -1559719789 545292289 -1476165461 42483874</internalNodes>
          <leafValues>
            -6.1251747608184814e-01 2.6599124073982239e-01</leafValues></_></weakClassifiers></_></stages>
  <features>
    <_>
      <rect>
        0 0 6 10</rect></_>
    <_>
      <rect>
        0 0 8 6</rect></_>
    <_>
      <rect>
        0 2 11 7</rect></_>
    <_>
      <rect>
        0 5 11 10</rect></_>
    <_>
      <rect>
        0 5 16 6</rect></_>
    <_>
      <rect>
        0 6 9 2</rect></_>
    <_>
      <rect>
        0 9 2 2</rect></_>
    <_>
      <rect>
        0 10 16 12</rect></_>
    <_>
      <rect>
        0 12 7 4</rect></_>
    <_>
      <rect>
        0 16 5 3</rect></_>
    <_>
      <rect>
        0 16 6 2</rect></_>
    <_>
      <rect>
        0 23 16 9</rect></_>
    <_>
      <rect>
        0 28 16 7</rect></_>
    <_>
      <rect>
        1 0 7 5</rect></_>
    <_>
      <rect>
        1 1 16 4</rect></_>
    <_>
      <rect>
        1 2 13 7</rect></_>
    <_>
      <rect>
        1 3 9 6</rect></_>
    <_>
      <rect>
        1 7 9 8</rect></_>
    <_>
      <rect>
        1 15 8 6</rect></_>
    <_>
      <rect>
        1 18 6 7</rect></_>
    <_>
      <rect>
        1 21 5 5</rect></_>
    <_>
      <rect>
        1 26 15 3</rect></_>
    <_>
      <rect>
        1 30 6 4</rect></_>
    <_>
      <rect>
        2 21 16 4</rect></_>
    <_>
      <rect>
        2 34 8 4</rect></_>
    <_>
      <rect>
        3 6 14 6</rect></_>
    <_>
      <rect>
        3 9 4 6</rect></_>
    <_>
      <rect>
        3 22 10 8</rect></_>
    <_>
      <rect>
        3 26 7 3</rect></_>
    <_>
      <rect>
        3 26 7 5</rect></_>
    <_>
      <rect>
        3 26 10 7</rect></_>
    <_>
      <rect>
        3 42 3 2</rect></_>
    <_>
      <rect>
        4 11 9 4</rect></_>
    <_>
      <rect>
        4 11 15 12</rect></_>
    <_>
      <rect>
        4 23 10 3</rect></_>
    <_>
      <rect>
        4 26 8 2</rect></_>
    <_>
      <rect>
        5 4 14 7</rect></_>
    <_>
      <rect>
        5 16 15 11</rect></_>
    <_>
      <rect>
        5 18 15 8</rect></_>
    <_>
      <rect>
        5 19 6 2</rect></_>
    <_>
      <rect>
        5 19 15 7</rect></_>
    <_>
      <rect>
        6 1 9 3</rect></_>
    <_>
      <rect>
        6 2 11 6</rect></_>
    <_>
      <rect>
        6 8 2 3</rect></_>
    <_>
      <rect>
        7 1 12 5</rect></_>
    <_>
      <rect>
        7 4 14 3</rect></_>
    <_>
      <rect>
        7 23 2 1</rect></_>
    <_>
      <rect>
        7 25 1 1</rect></_>
    <_>
      <rect>
        8 4 8 6</rect></_>
    <_>
      <rect>
        8 5 3 2</rect></_>
    <_>
      <rect>
        8 12 3 3</rect></_>
    <_>
      <rect>
        8 13 4 1</rect></_>
    <_>
      <rect>
        8 15 4 3</rect></_>
    <_>
      <rect>
        8 18 9 6</rect></_>
    <_>
      <rect>
        8 21 4 3</rect></_>
    <_>
      <rect>
        8 31 1 1</rect></_>
    <_>
      <rect>
        8 31 3 1</rect></_>
    <_>
      <rect>
        9 2 7 4</rect></_>
    <_>
      <rect>
        9 16 3 1</rect></_>
    <_>
      <rect>
        9 32 8 5</rect></_>
    <_>
      <rect>
        10 0 6 2</rect></_>
    <_>
      <rect>
        11 0 3 2</rect></_>
    <_>
      <rect>
        11 34 1 1</rect></_>
    <_>
      <rect>
        12 29 2 3</rect></_>
    <_>
      <rect>
        13 0 7 3</rect></_>
    <_>
      <rect>
        13 0 9 4</rect></_>
    <_>
      <rect>
        13 0 12 16</rect></_>
    <_>
      <rect>
        14 11 4 1</rect></_>
    <_>
      <rect>
        14 21 3 2</rect></_>
    <_>
      <rect>
        14 32 1 2</rect></_>
    <_>
      <rect>
        15 13 1 1</rect></_>
    <_>
      <rect>
        15 23 9 1</rect></_>
    <_>
      <rect>
        15 30 4 3</rect></_>
    <_>
      <rect>
        16 18 3 2</rect></_>
    <_>
      <rect>
        16 27 3 3</rect></_>
    <_>
      <rect>
        17 1 5 4</rect></_>
    <_>
      <rect>
        17 24 2 3</rect></_>
    <_>
      <rect>
        17 44 7 2</rect></_>
    <_>
      <rect>
        18 14 2 1</rect></_>
    <_>
      <rect>
        18 17 3 1</rect></_>
    <_>
      <rect>
        18 18 2 3</rect></_>
    <_>
      <rect>
        18 19 2 3</rect></_>
    <_>
      <rect>
        18 23 2 3</rect></_>
    <_>
      <rect>
        18 28 5 4</rect></_>
    <_>
      <rect>
        18 29 10 7</rect></_>
    <_>
      <rect>
        19 5 3 2</rect></_>
    <_>
      <rect>
        19 16 2 2</rect></_>
    <_>
      <rect>
        19 22 3 2</rect></_>
    <_>
      <rect>
        19 22 4 3</rect></_>
    <_>
      <rect>
        20 8 1 1</rect></_>
    <_>
      <rect>
        20 20 6 7</rect></_>
    <_>
      <rect>
        20 21 4 3</rect></_>
    <_>
      <rect>
        20 23 3 3</rect></_>
    <_>
      <rect>
        20 27 2 3</rect></_>
    <_>
      <rect>
        21 4 1 1</rect></_>
    <_>
      <rect>
        21 5 1 1</rect></_>
    <_>
      <rect>
        21 6 1 1</rect></_>
    <_>
      <rect>
        21 12 3 1</rect></_>
    <_>
      <rect>
        21 13 2 1</rect></_>
    <_>
      <rect>
        21 16 2 1</rect></_>
    <_>
      <rect>
        21 22 3 2</rect></_>
    <_>
      <rect>
        22 4 9 4</rect></_>
    <_>
      <rect>
        22 11 2 1</rect></_>
    <_>
      <rect>
        22 25 3 2</rect></_>
    <_>
      <rect>
        22 37 1 1</rect></_>
    <_>
      <rect>
        22 38 1 1</rect></_>
    <_>
      <rect>
        23 1 9 6</rect></_>
    <_>
      <rect>
        23 1 9 8</rect></_>
    <_>
      <rect>
        23 16 9 11</rect></_>
    <_>
      <rect>
        23 17 2 1</rect></_>
    <_>
      <rect>
        24 5 6 3</rect></_>
    <_>
      <rect>
        24 5 6 6</rect></_>
    <_>
      <rect>
        24 9 8 5</rect></_>
    <_>
      <rect>
        25 2 8 5</rect></_>
    <_>
      <rect>
        25 17 2 1</rect></_>
    <_>
      <rect>
        25 21 5 2</rect></_>
    <_>
      <rect>
        25 31 5 2</rect></_>
    <_>
      <rect>
        26 3 8 13</rect></_>
    <_>
      <rect>
        26 5 8 15</rect></_>
    <_>
      <rect>
        26 7 2 1</rect></_>
    <_>
      <rect>
        26 14 2 1</rect></_>
    <_>
      <rect>
        27 23 5 3</rect></_>
    <_>
      <rect>
        28 16 2 2</rect></_>
    <_>
      <rect>
        28 17 2 1</rect></_>
    <_>
      <rect>
        29 12 7 9</rect></_>
    <_>
      <rect>
        29 17 7 11</rect></_>
    <_>
      <rect>
        29 23 6 5</rect></_>
    <_>
      <rect>
        29 24 2 1</rect></_>
    <_>
      <rect>
        29 26 7 3</rect></_>
    <_>
      <rect>
        29 36 7 3</rect></_>
    <_>
      <rect>
        29 36 7 4</rect></_>
    <_>
      <rect>
        29 39 6 3</rect></_>
    <_>
      <rect>
        30 15 5 5</rect></_>
    <_>
      <rect>
        30 18 5 2</rect></_>
    <_>
      <rect>
        30 20 4 1</rect></_>
    <_>
      <rect>
        31 5 6 12</rect></_>
    <_>
      <rect>
        31 10 6 5</rect></_>
    <_>
      <rect>
        31 14 1 3</rect></_>
    <_>
      <rect>
        31 17 6 3</rect></_>
    <_>
      <rect>
        31 28 6 3</rect></_>
    <_>
      <rect>
        31 31 6 3</rect></_>
    <_>
      <rect>
        32 7 6 5</rect></_>
    <_>
      <rect>
        32 10 6 5</rect></_>
    <_>
      <rect>
        32 10 6 7</rect></_>
    <_>
      <rect>
        32 20 5 5</rect></_>
    <_>
      <rect>
        32 26 6 6</rect></_>
    <_>
      <rect>
        34 9 1 1</rect></_>
    <_>
      <rect>
        34 23 2 2</rect></_>
    <_>
      <rect>
        35 6 5 3</rect></_>
    <_>
      <rect>
        35 24 5 3</rect></_>
    <_>
      <rect>
        35 31 4 5</rect></_>
    <_>
      <rect>
        35 31 5 3</rect></_>
    <_>
      <rect>
        35 36 5 2</rect></_>
    <_>
      <rect>
        36 18 1 1</rect></_>
    <_>
      <rect>
        37 15 4 3</rect></_>
    <_>
      <rect>
        37 17 4 4</rect></_>
    <_>
      <rect>
        37 25 4 4</rect></_>
    <_>
      <rect>
        38 16 4 8</rect></_>
    <_>
      <rect>
        38 19 1 1</rect></_>
    <_>
      <rect>
        38 24 4 5</rect></_>
    <_>
      <rect>
        41 19 3 4</rect></_></features></cascade>
</opencv_storage>
