<?xml version="1.0"?>
<opencv_storage>
<cascade>
  <stageType>BOOST</stageType>
  <featureType>HOG</featureType>
  <height>60</height>
  <width>80</width>
  <stageParams>
    <boostType>GAB</boostType>
    <minHitRate>9.9900001287460327e-01</minHitRate>
    <maxFalseAlarm>5.0000000000000000e-01</maxFalseAlarm>
    <weightTrimRate>9.4999999999999996e-01</weightTrimRate>
    <maxDepth>1</maxDepth>
    <maxWeakCount>100</maxWeakCount></stageParams>
  <featureParams>
    <maxCatCount>0</maxCatCount>
    <featSize>36</featSize></featureParams>
  <stageNum>12</stageNum>
  <stages>
    <!-- stage 0 -->
    <_>
      <maxWeakCount>3</maxWeakCount>
      <stageThreshold>-1.3228025436401367e+00</stageThreshold>
      <weakClassifiers>
        <_>
          <internalNodes>
            0 -1 14 1.9262485206127167e-02</internalNodes>
          <leafValues>
            6.6752356290817261e-01 -9.0339893102645874e-01</leafValues></_>
        <_>
          <internalNodes>
            0 -1 74 1.0530790314078331e-02</internalNodes>
          <leafValues>
            4.7632235288619995e-01 -7.0771396160125732e-01</leafValues></_>
        <_>
          <internalNodes>
            0 -1 40 1.8299145624041557e-02</internalNodes>
          <leafValues>
            2.8831031918525696e-01 -7.6692664623260498e-01</leafValues></_></weakClassifiers></_>
    <!-- stage 1 -->
    <_>
      <maxWeakCount>2</maxWeakCount>
      <stageThreshold>-1.5394484996795654e-01</stageThreshold>
      <weakClassifiers>
        <_>
          <internalNodes>
            0 -1 32 7.9479720443487167e-03</internalNodes>
          <leafValues>
            7.3021584749221802e-01 -8.7622147798538208e-01</leafValues></_>
        <_>
          <internalNodes>
            0 -1 20 7.4913580901920795e-03</internalNodes>
          <leafValues>
            7.2227662801742554e-01 -8.0888080596923828e-01</leafValues></_></weakClassifiers></_>
    <!-- stage 2 -->
    <_>
      <maxWeakCount>4</maxWeakCount>
      <stageThreshold>-8.6763894557952881e-01</stageThreshold>
      <weakClassifiers>
        <_>
          <internalNodes>
            0 -1 30 7.4623981490731239e-03</internalNodes>
          <leafValues>
            6.1367523670196533e-01 -7.9856115579605103e-01</leafValues></_>
        <_>
          <internalNodes>
            0 -1 43 2.1863535046577454e-02</internalNodes>
          <leafValues>
            4.0140682458877563e-01 -7.3668736219406128e-01</leafValues></_>
        <_>
          <internalNodes>
            0 -1 95 4.7597009688615799e-03</internalNodes>
          <leafValues>
            -9.6806490421295166e-01 2.3882752656936646e-01</leafValues></_>
        <_>
          <internalNodes>
            0 -1 90 1.0564134456217289e-02</internalNodes>
          <leafValues>
            4.3246221542358398e-01 -7.0931214094161987e-01</leafValues></_></weakClassifiers></_>
    <!-- stage 3 -->
    <_>
      <maxWeakCount>6</maxWeakCount>
      <stageThreshold>-1.0846562385559082e+00</stageThreshold>
      <weakClassifiers>
        <_>
          <internalNodes>
            0 -1 51 2.2535789757966995e-02</internalNodes>
          <leafValues>
            4.7909969091415405e-01 -6.6804981231689453e-01</leafValues></_>
        <_>
          <internalNodes>
            0 -1 84 4.3704370036721230e-03</internalNodes>
          <leafValues>
            -9.0758669376373291e-01 3.1455573439598083e-01</leafValues></_>
        <_>
          <internalNodes>
            0 -1 29 8.7584219872951508e-03</internalNodes>
          <leafValues>
            3.1418940424919128e-01 -8.0557596683502197e-01</leafValues></_>
        <_>
          <internalNodes>
            0 -1 21 3.7020981311798096e-02</internalNodes>
          <leafValues>
            -4.5275121927261353e-01 6.0845041275024414e-01</leafValues></_>
        <_>
          <internalNodes>
            0 -1 92 1.3816410675644875e-02</internalNodes>
          <leafValues>
            2.9326835274696350e-01 -7.7915894985198975e-01</leafValues></_>
        <_>
          <internalNodes>
            0 -1 41 1.3474596198648214e-04</internalNodes>
          <leafValues>
            -9.2466902732849121e-01 2.3389661312103271e-01</leafValues></_></weakClassifiers></_>
    <!-- stage 4 -->
    <_>
      <maxWeakCount>7</maxWeakCount>
      <stageThreshold>-1.4007841348648071e+00</stageThreshold>
      <weakClassifiers>
        <_>
          <internalNodes>
            0 -1 85 4.7668586485087872e-03</internalNodes>
          <leafValues>
            7.7197152376174927e-01 -4.2533937096595764e-01</leafValues></_>
        <_>
          <internalNodes>
            0 -1 33 4.5727146789431572e-03</internalNodes>
          <leafValues>
            5.2607673406600952e-01 -6.1020976305007935e-01</leafValues></_>
        <_>
          <internalNodes>
            0 -1 70 1.2549484148621559e-02</internalNodes>
          <leafValues>
            3.7653300166130066e-01 -7.0074522495269775e-01</leafValues></_>
        <_>
          <internalNodes>
            0 -1 10 1.1232670396566391e-02</internalNodes>
          <leafValues>
            2.7948191761970520e-01 -8.5030090808868408e-01</leafValues></_>
        <_>
          <internalNodes>
            0 -1 81 6.1619910411536694e-03</internalNodes>
          <leafValues>
            -9.0291559696197510e-01 2.2588498890399933e-01</leafValues></_>
        <_>
          <internalNodes>
            0 -1 55 1.3432421721518040e-02</internalNodes>
          <leafValues>
            4.1287213563919067e-01 -5.4288393259048462e-01</leafValues></_>
        <_>
          <internalNodes>
            0 -1 52 1.1377068236470222e-02</internalNodes>
          <leafValues>
            4.3849092721939087e-01 -5.3022420406341553e-01</leafValues></_></weakClassifiers></_>
    <!-- stage 5 -->
    <_>
      <maxWeakCount>12</maxWeakCount>
      <stageThreshold>-1.6126853227615356e+00</stageThreshold>
      <weakClassifiers>
        <_>
          <internalNodes>
            0 -1 44 1.5278922393918037e-02</internalNodes>
          <leafValues>
            5.2166378498077393e-01 -5.7342654466629028e-01</leafValues></_>
        <_>
          <internalNodes>
            0 -1 96 9.2731434851884842e-03</internalNodes>
          <leafValues>
            4.6347472071647644e-01 -4.5525112748146057e-01</leafValues></_>
        <_>
          <internalNodes>
            0 -1 39 1.9725555554032326e-02</internalNodes>
          <leafValues>
            2.4702838063240051e-01 -7.4916470050811768e-01</leafValues></_>
        <_>
          <internalNodes>
            0 -1 80 1.5878039412200451e-03</internalNodes>
          <leafValues>
            -9.1318881511688232e-01 2.0200400054454803e-01</leafValues></_>
        <_>
          <internalNodes>
            0 -1 13 9.2351399362087250e-03</internalNodes>
          <leafValues>
            2.6363852620124817e-01 -7.7577126026153564e-01</leafValues></_>
        <_>
          <internalNodes>
            0 -1 75 4.8151672817766666e-03</internalNodes>
          <leafValues>
            -8.4303498268127441e-01 1.5657031536102295e-01</leafValues></_>
        <_>
          <internalNodes>
            0 -1 23 1.0243354365229607e-02</internalNodes>
          <leafValues>
            2.5561773777008057e-01 -7.4639678001403809e-01</leafValues></_>
        <_>
          <internalNodes>
            0 -1 58 1.1543205007910728e-02</internalNodes>
          <leafValues>
            2.8641271591186523e-01 -6.7676901817321777e-01</leafValues></_>
        <_>
          <internalNodes>
            0 -1 78 4.0004178881645203e-03</internalNodes>
          <leafValues>
            -9.4464486837387085e-01 1.7357233166694641e-01</leafValues></_>
        <_>
          <internalNodes>
            0 -1 57 9.1334208846092224e-03</internalNodes>
          <leafValues>
            3.1902804970741272e-01 -5.4482573270797729e-01</leafValues></_>
        <_>
          <internalNodes>
            0 -1 27 1.7356663942337036e-02</internalNodes>
          <leafValues>
            3.5883158445358276e-01 -5.4060018062591553e-01</leafValues></_>
        <_>
          <internalNodes>
            0 -1 61 4.6399654820561409e-03</internalNodes>
          <leafValues>
            -7.2063398361206055e-01 2.5177887082099915e-01</leafValues></_></weakClassifiers></_>
    <!-- stage 6 -->
    <_>
      <maxWeakCount>9</maxWeakCount>
      <stageThreshold>-1.1639487743377686e+00</stageThreshold>
      <weakClassifiers>
        <_>
          <internalNodes>
            0 -1 60 5.1712458953261375e-03</internalNodes>
          <leafValues>
            5.9633028507232666e-01 -4.1744965314865112e-01</leafValues></_>
        <_>
          <internalNodes>
            0 -1 56 1.9748266786336899e-02</internalNodes>
          <leafValues>
            3.7564766407012939e-01 -6.1001306772232056e-01</leafValues></_>
        <_>
          <internalNodes>
            0 -1 16 1.9278392195701599e-02</internalNodes>
          <leafValues>
            2.0501317083835602e-01 -8.4239464998245239e-01</leafValues></_>
        <_>
          <internalNodes>
            0 -1 45 3.7707228213548660e-02</internalNodes>
          <leafValues>
            1.6964736580848694e-01 -8.8925182819366455e-01</leafValues></_>
        <_>
          <internalNodes>
            0 -1 97 1.9576523452997208e-02</internalNodes>
          <leafValues>
            1.9756411015987396e-01 -8.5738593339920044e-01</leafValues></_>
        <_>
          <internalNodes>
            0 -1 88 3.0456854030489922e-02</internalNodes>
          <leafValues>
            1.1545536667108536e-01 -8.9874935150146484e-01</leafValues></_>
        <_>
          <internalNodes>
            0 -1 46 5.2087563090026379e-03</internalNodes>
          <leafValues>
            -6.8801879882812500e-01 2.1324090659618378e-01</leafValues></_>
        <_>
          <internalNodes>
            0 -1 8 1.6330111771821976e-02</internalNodes>
          <leafValues>
            2.7688565850257874e-01 -6.1707133054733276e-01</leafValues></_>
        <_>
          <internalNodes>
            0 -1 17 8.0593317747116089e-02</internalNodes>
          <leafValues>
            -2.5934255123138428e-01 8.5949695110321045e-01</leafValues></_></weakClassifiers></_>
    <!-- stage 7 -->
    <_>
      <maxWeakCount>10</maxWeakCount>
      <stageThreshold>-9.0445959568023682e-01</stageThreshold>
      <weakClassifiers>
        <_>
          <internalNodes>
            0 -1 89 4.6368087641894817e-03</internalNodes>
          <leafValues>
            5.3752535581588745e-01 -3.4594595432281494e-01</leafValues></_>
        <_>
          <internalNodes>
            0 -1 22 2.1263834089040756e-02</internalNodes>
          <leafValues>
            -4.0009617805480957e-01 4.6441474556922913e-01</leafValues></_>
        <_>
          <internalNodes>
            0 -1 11 1.0437274351716042e-02</internalNodes>
          <leafValues>
            2.2152437269687653e-01 -8.1778591871261597e-01</leafValues></_>
        <_>
          <internalNodes>
            0 -1 26 9.4751385040581226e-04</internalNodes>
          <leafValues>
            -6.9104558229446411e-01 2.5788751244544983e-01</leafValues></_>
        <_>
          <internalNodes>
            0 -1 73 6.5660536289215088e-02</internalNodes>
          <leafValues>
            -2.8845116496086121e-01 8.5710227489471436e-01</leafValues></_>
        <_>
          <internalNodes>
            0 -1 69 1.3804989866912365e-02</internalNodes>
          <leafValues>
            3.2446628808975220e-01 -6.3876855373382568e-01</leafValues></_>
        <_>
          <internalNodes>
            0 -1 38 8.3513110876083374e-02</internalNodes>
          <leafValues>
            -2.9939359426498413e-01 7.5343030691146851e-01</leafValues></_>
        <_>
          <internalNodes>
            0 -1 2 1.3298127800226212e-02</internalNodes>
          <leafValues>
            2.8794786334037781e-01 -6.9894498586654663e-01</leafValues></_>
        <_>
          <internalNodes>
            0 -1 47 4.2397491633892059e-03</internalNodes>
          <leafValues>
            -7.1522891521453857e-01 2.3712599277496338e-01</leafValues></_>
        <_>
          <internalNodes>
            0 -1 28 1.1934899725019932e-02</internalNodes>
          <leafValues>
            2.6589697599411011e-01 -7.9610323905944824e-01</leafValues></_></weakClassifiers></_>
    <!-- stage 8 -->
    <_>
      <maxWeakCount>11</maxWeakCount>
      <stageThreshold>-1.2959538698196411e+00</stageThreshold>
      <weakClassifiers>
        <_>
          <internalNodes>
            0 -1 93 1.0688746348023415e-02</internalNodes>
          <leafValues>
            5.0193798542022705e-01 -3.5158500075340271e-01</leafValues></_>
        <_>
          <internalNodes>
            0 -1 65 3.4515361767262220e-04</internalNodes>
          <leafValues>
            -8.9472085237503052e-01 2.3627670109272003e-01</leafValues></_>
        <_>
          <internalNodes>
            0 -1 42 1.2709314003586769e-02</internalNodes>
          <leafValues>
            3.3891713619232178e-01 -4.6415677666664124e-01</leafValues></_>
        <_>
          <internalNodes>
            0 -1 68 5.4371068254113197e-03</internalNodes>
          <leafValues>
            -6.4713299274444580e-01 2.2096221148967743e-01</leafValues></_>
        <_>
          <internalNodes>
            0 -1 7 7.6673626899719238e-03</internalNodes>
          <leafValues>
            2.3800384998321533e-01 -7.3061412572860718e-01</leafValues></_>
        <_>
          <internalNodes>
            0 -1 4 1.7238396406173706e-01</internalNodes>
          <leafValues>
            -2.2135110199451447e-01 8.8871312141418457e-01</leafValues></_>
        <_>
          <internalNodes>
            0 -1 0 5.1788694690912962e-04</internalNodes>
          <leafValues>
            -8.5486656427383423e-01 1.9161832332611084e-01</leafValues></_>
        <_>
          <internalNodes>
            0 -1 64 3.8011791184544563e-03</internalNodes>
          <leafValues>
            3.6811420321464539e-01 -4.2342635989189148e-01</leafValues></_>
        <_>
          <internalNodes>
            0 -1 81 9.4985328614711761e-03</internalNodes>
          <leafValues>
            -6.5462183952331543e-01 2.6100262999534607e-01</leafValues></_>
        <_>
          <internalNodes>
            0 -1 62 1.8542420119047165e-02</internalNodes>
          <leafValues>
            3.4875214099884033e-01 -4.3280619382858276e-01</leafValues></_>
        <_>
          <internalNodes>
            0 -1 63 6.8916738033294678e-02</internalNodes>
          <leafValues>
            -2.8556552529335022e-01 5.6847953796386719e-01</leafValues></_></weakClassifiers></_>
    <!-- stage 9 -->
    <_>
      <maxWeakCount>13</maxWeakCount>
      <stageThreshold>-1.4133644104003906e+00</stageThreshold>
      <weakClassifiers>
        <_>
          <internalNodes>
            0 -1 83 5.1137562841176987e-03</internalNodes>
          <leafValues>
            5.3861582279205322e-01 -3.6076816916465759e-01</leafValues></_>
        <_>
          <internalNodes>
            0 -1 12 5.5468704551458359e-02</internalNodes>
          <leafValues>
            -2.1351736783981323e-01 7.3243367671966553e-01</leafValues></_>
        <_>
          <internalNodes>
            0 -1 94 4.8907129094004631e-03</internalNodes>
          <leafValues>
            5.4685574769973755e-01 -3.6484766006469727e-01</leafValues></_>
        <_>
          <internalNodes>
            0 -1 79 1.4274073764681816e-03</internalNodes>
          <leafValues>
            -8.4194707870483398e-01 3.0480644106864929e-01</leafValues></_>
        <_>
          <internalNodes>
            0 -1 36 7.7056521549820900e-03</internalNodes>
          <leafValues>
            2.9106912016868591e-01 -5.4255968332290649e-01</leafValues></_>
        <_>
          <internalNodes>
            0 -1 6 1.2029208242893219e-01</internalNodes>
          <leafValues>
            -2.2586399316787720e-01 8.9329606294631958e-01</leafValues></_>
        <_>
          <internalNodes>
            0 -1 67 9.9628180265426636e-02</internalNodes>
          <leafValues>
            -2.2818844020366669e-01 7.5951105356216431e-01</leafValues></_>
        <_>
          <internalNodes>
            0 -1 3 1.1017653159797192e-02</internalNodes>
          <leafValues>
            2.8734093904495239e-01 -6.5783894062042236e-01</leafValues></_>
        <_>
          <internalNodes>
            0 -1 17 1.1968761682510376e-01</internalNodes>
          <leafValues>
            -1.9173163175582886e-01 8.8875353336334229e-01</leafValues></_>
        <_>
          <internalNodes>
            0 -1 77 3.3878781832754612e-03</internalNodes>
          <leafValues>
            -7.8790396451950073e-01 2.4690671265125275e-01</leafValues></_>
        <_>
          <internalNodes>
            0 -1 18 1.3785150647163391e-01</internalNodes>
          <leafValues>
            -2.6261147856712341e-01 8.4867566823959351e-01</leafValues></_>
        <_>
          <internalNodes>
            0 -1 31 9.8700717091560364e-02</internalNodes>
          <leafValues>
            -1.2265653163194656e-01 9.4161039590835571e-01</leafValues></_>
        <_>
          <internalNodes>
            0 -1 5 7.0191845297813416e-03</internalNodes>
          <leafValues>
            3.8915309309959412e-01 -4.4980481266975403e-01</leafValues></_></weakClassifiers></_>
    <!-- stage 10 -->
    <_>
      <maxWeakCount>14</maxWeakCount>
      <stageThreshold>-1.6921685934066772e+00</stageThreshold>
      <weakClassifiers>
        <_>
          <internalNodes>
            0 -1 34 3.5949351731687784e-03</internalNodes>
          <leafValues>
            4.4150298833847046e-01 -4.3783783912658691e-01</leafValues></_>
        <_>
          <internalNodes>
            0 -1 82 6.2865554355084896e-03</internalNodes>
          <leafValues>
            -6.8000429868698120e-01 2.4605838954448700e-01</leafValues></_>
        <_>
          <internalNodes>
            0 -1 50 1.3367570936679840e-02</internalNodes>
          <leafValues>
            3.3938962221145630e-01 -5.5101644992828369e-01</leafValues></_>
        <_>
          <internalNodes>
            0 -1 54 1.9362987950444221e-02</internalNodes>
          <leafValues>
            2.1636258065700531e-01 -6.4044475555419922e-01</leafValues></_>
        <_>
          <internalNodes>
            0 -1 86 4.7001978382468224e-03</internalNodes>
          <leafValues>
            -8.7957763671875000e-01 2.1289928257465363e-01</leafValues></_>
        <_>
          <internalNodes>
            0 -1 19 1.1218909919261932e-01</internalNodes>
          <leafValues>
            -2.3417249321937561e-01 8.6115813255310059e-01</leafValues></_>
        <_>
          <internalNodes>
            0 -1 71 8.0299135297536850e-03</internalNodes>
          <leafValues>
            3.3950880169868469e-01 -5.4718077182769775e-01</leafValues></_>
        <_>
          <internalNodes>
            0 -1 24 1.0112983733415604e-01</internalNodes>
          <leafValues>
            -1.9186322391033173e-01 9.2480081319808960e-01</leafValues></_>
        <_>
          <internalNodes>
            0 -1 98 8.9030964300036430e-03</internalNodes>
          <leafValues>
            -7.9375129938125610e-01 2.1944744884967804e-01</leafValues></_>
        <_>
          <internalNodes>
            0 -1 1 6.5808165818452835e-03</internalNodes>
          <leafValues>
            3.4753599762916565e-01 -4.6389624476432800e-01</leafValues></_>
        <_>
          <internalNodes>
            0 -1 87 4.0517803281545639e-03</internalNodes>
          <leafValues>
            -9.2896169424057007e-01 1.3813738524913788e-01</leafValues></_>
        <_>
          <internalNodes>
            0 -1 59 1.0385808534920216e-02</internalNodes>
          <leafValues>
            2.0852845907211304e-01 -6.2205249071121216e-01</leafValues></_>
        <_>
          <internalNodes>
            0 -1 49 4.3911725282669067e-02</internalNodes>
          <leafValues>
            1.6696669161319733e-01 -8.3905082941055298e-01</leafValues></_>
        <_>
          <internalNodes>
            0 -1 72 4.5750159770250320e-03</internalNodes>
          <leafValues>
            -7.4243831634521484e-01 1.6175346076488495e-01</leafValues></_></weakClassifiers></_>
    <!-- stage 11 -->
    <_>
      <maxWeakCount>11</maxWeakCount>
      <stageThreshold>-1.0425635576248169e+00</stageThreshold>
      <weakClassifiers>
        <_>
          <internalNodes>
            0 -1 35 5.5886628106236458e-03</internalNodes>
          <leafValues>
            4.5874586701393127e-01 -5.4863810539245605e-01</leafValues></_>
        <_>
          <internalNodes>
            0 -1 76 3.9853979833424091e-03</internalNodes>
          <leafValues>
            -8.3464646339416504e-01 2.1271689236164093e-01</leafValues></_>
        <_>
          <internalNodes>
            0 -1 48 3.6134202964603901e-03</internalNodes>
          <leafValues>
            3.5505756735801697e-01 -4.5454049110412598e-01</leafValues></_>
        <_>
          <internalNodes>
            0 -1 66 3.8288347423076630e-02</internalNodes>
          <leafValues>
            2.0324285328388214e-01 -7.6031064987182617e-01</leafValues></_>
        <_>
          <internalNodes>
            0 -1 91 4.6431357041001320e-03</internalNodes>
          <leafValues>
            -9.7051036357879639e-01 1.3663244247436523e-01</leafValues></_>
        <_>
          <internalNodes>
            0 -1 15 7.6013258658349514e-03</internalNodes>
          <leafValues>
            1.9755420088768005e-01 -7.8568416833877563e-01</leafValues></_>
        <_>
          <internalNodes>
            0 -1 37 1.2132019735872746e-02</internalNodes>
          <leafValues>
            2.7254724502563477e-01 -5.3418391942977905e-01</leafValues></_>
        <_>
          <internalNodes>
            0 -1 53 3.2115962356328964e-02</internalNodes>
          <leafValues>
            1.9004932045936584e-01 -7.9698765277862549e-01</leafValues></_>
        <_>
          <internalNodes>
            0 -1 25 9.5911450684070587e-02</internalNodes>
          <leafValues>
            -2.5220859050750732e-01 6.7251437902450562e-01</leafValues></_>
        <_>
          <internalNodes>
            0 -1 9 6.3756674528121948e-02</internalNodes>
          <leafValues>
            -2.7339130640029907e-01 7.1652978658676147e-01</leafValues></_>
        <_>
          <internalNodes>
            0 -1 10 1.7162135179660254e-07</internalNodes>
          <leafValues>
            -5.9403294324874878e-01 3.0048829317092896e-01</leafValues></_></weakClassifiers></_></stages>
  <features>
    <_>
      <rect>
        0 40 8 8 0</rect></_>
    <_>
      <rect>
        4 8 8 8 32</rect></_>
    <_>
      <rect>
        12 16 8 8 6</rect></_>
    <_>
      <rect>
        12 32 8 8 20</rect></_>
    <_>
      <rect>
        16 36 8 8 12</rect></_>
    <_>
      <rect>
        20 16 8 8 24</rect></_>
    <_>
      <rect>
        24 20 8 8 20</rect></_>
    <_>
      <rect>
        24 28 8 8 12</rect></_>
    <_>
      <rect>
        28 4 8 8 19</rect></_>
    <_>
      <rect>
        28 16 8 8 9</rect></_>
    <_>
      <rect>
        28 16 8 8 34</rect></_>
    <_>
      <rect>
        28 20 8 8 32</rect></_>
    <_>
      <rect>
        28 28 8 8 5</rect></_>
    <_>
      <rect>
        28 28 8 8 11</rect></_>
    <_>
      <rect>
        28 28 8 8 13</rect></_>
    <_>
      <rect>
        28 28 8 8 14</rect></_>
    <_>
      <rect>
        28 28 8 8 17</rect></_>
    <_>
      <rect>
        28 28 8 8 18</rect></_>
    <_>
      <rect>
        28 28 8 8 21</rect></_>
    <_>
      <rect>
        28 32 8 8 34</rect></_>
    <_>
      <rect>
        28 40 8 8 1</rect></_>
    <_>
      <rect>
        32 20 8 8 1</rect></_>
    <_>
      <rect>
        32 24 8 8 24</rect></_>
    <_>
      <rect>
        36 16 8 8 24</rect></_>
    <_>
      <rect>
        36 20 8 8 9</rect></_>
    <_>
      <rect>
        36 20 8 8 12</rect></_>
    <_>
      <rect>
        36 24 8 8 14</rect></_>
    <_>
      <rect>
        36 40 8 8 4</rect></_>
    <_>
      <rect>
        40 16 8 8 18</rect></_>
    <_>
      <rect>
        40 16 8 8 19</rect></_>
    <_>
      <rect>
        40 16 8 8 20</rect></_>
    <_>
      <rect>
        40 20 8 8 32</rect></_>
    <_>
      <rect>
        40 28 8 8 5</rect></_>
    <_>
      <rect>
        44 8 8 8 19</rect></_>
    <_>
      <rect>
        44 12 8 8 19</rect></_>
    <_>
      <rect>
        44 32 8 8 6</rect></_>
    <_>
      <rect>
        52 20 8 8 10</rect></_>
    <_>
      <rect>
        52 28 8 8 19</rect></_>
    <_>
      <rect>
        52 36 8 8 9</rect></_>
    <_>
      <rect>
        64 24 8 8 22</rect></_>
    <_>
      <rect>
        64 32 8 8 4</rect></_>
    <_>
      <rect>
        64 40 8 8 27</rect></_>
    <_>
      <rect>
        0 0 8 16 31</rect></_>
    <_>
      <rect>
        8 16 8 16 4</rect></_>
    <_>
      <rect>
        28 4 8 16 31</rect></_>
    <_>
      <rect>
        28 20 8 16 13</rect></_>
    <_>
      <rect>
        32 12 8 16 24</rect></_>
    <_>
      <rect>
        36 24 8 16 9</rect></_>
    <_>
      <rect>
        40 0 8 16 20</rect></_>
    <_>
      <rect>
        40 16 8 16 21</rect></_>
    <_>
      <rect>
        52 0 8 16 25</rect></_>
    <_>
      <rect>
        60 12 8 16 31</rect></_>
    <_>
      <rect>
        64 8 8 16 22</rect></_>
    <_>
      <rect>
        64 16 8 16 3</rect></_>
    <_>
      <rect>
        64 16 8 16 22</rect></_>
    <_>
      <rect>
        0 20 16 8 4</rect></_>
    <_>
      <rect>
        0 28 16 8 4</rect></_>
    <_>
      <rect>
        4 12 16 8 6</rect></_>
    <_>
      <rect>
        4 28 16 8 20</rect></_>
    <_>
      <rect>
        4 36 16 8 28</rect></_>
    <_>
      <rect>
        8 12 16 8 33</rect></_>
    <_>
      <rect>
        16 12 16 8 30</rect></_>
    <_>
      <rect>
        20 4 16 8 31</rect></_>
    <_>
      <rect>
        24 20 16 8 4</rect></_>
    <_>
      <rect>
        24 28 16 8 33</rect></_>
    <_>
      <rect>
        24 40 16 8 9</rect></_>
    <_>
      <rect>
        28 20 16 8 26</rect></_>
    <_>
      <rect>
        28 28 16 8 31</rect></_>
    <_>
      <rect>
        32 20 16 8 3</rect></_>
    <_>
      <rect>
        36 44 16 8 34</rect></_>
    <_>
      <rect>
        44 40 16 8 14</rect></_>
    <_>
      <rect>
        48 36 16 8 24</rect></_>
    <_>
      <rect>
        4 8 16 16 34</rect></_>
    <_>
      <rect>
        4 16 16 16 25</rect></_>
    <_>
      <rect>
        4 20 16 16 20</rect></_>
    <_>
      <rect>
        12 12 16 16 32</rect></_>
    <_>
      <rect>
        12 12 16 16 33</rect></_>
    <_>
      <rect>
        12 20 16 16 9</rect></_>
    <_>
      <rect>
        16 24 16 16 8</rect></_>
    <_>
      <rect>
        16 28 16 16 9</rect></_>
    <_>
      <rect>
        20 16 16 16 16</rect></_>
    <_>
      <rect>
        24 16 16 16 15</rect></_>
    <_>
      <rect>
        24 16 16 16 16</rect></_>
    <_>
      <rect>
        24 16 16 16 19</rect></_>
    <_>
      <rect>
        24 28 16 16 10</rect></_>
    <_>
      <rect>
        28 16 16 16 33</rect></_>
    <_>
      <rect>
        32 20 16 16 30</rect></_>
    <_>
      <rect>
        32 24 16 16 17</rect></_>
    <_>
      <rect>
        44 16 16 16 19</rect></_>
    <_>
      <rect>
        44 16 16 16 24</rect></_>
    <_>
      <rect>
        44 20 16 16 33</rect></_>
    <_>
      <rect>
        4 20 32 16 30</rect></_>
    <_>
      <rect>
        4 24 32 16 19</rect></_>
    <_>
      <rect>
        8 0 32 16 28</rect></_>
    <_>
      <rect>
        8 28 32 16 14</rect></_>
    <_>
      <rect>
        12 20 32 16 16</rect></_>
    <_>
      <rect>
        16 28 32 16 33</rect></_>
    <_>
      <rect>
        0 12 24 24 19</rect></_>
    <_>
      <rect>
        16 0 24 24 3</rect></_></features></cascade>
</opencv_storage>
